<?xml version="1.0"?>
<opencv_storage>
<cascade>
  <stageType>BOOST</stageType>
  <featureType>HAAR</featureType>
  <height>24</height>
  <width>24</width>
  <stageParams>
    <boostType>GAB</boostType>
    <minHitRate>9.9500000476837158e-01</minHitRate>
    <maxFalseAlarm>5.0000000000000000e-01</maxFalseAlarm>
    <weightTrimRate>9.4999999999999996e-01</weightTrimRate>
    <maxDepth>1</maxDepth>
    <maxWeakCount>100</maxWeakCount></stageParams>
  <featureParams>
    <maxCatCount>0</maxCatCount>
    <featSize>1</featSize>
    <mode>BASIC</mode></featureParams>
  <stageNum>6</stageNum>
  <stages>
    <!-- stage 0 -->
    <_>
      <maxWeakCount>2</maxWeakCount>
      <stageThreshold>-6.4632676541805267e-02</stageThreshold>
      <weakClassifiers>
        <_>
          <internalNodes>
            0 -1 8 7.7969506382942200e-02</internalNodes>
          <leafValues>
            -8.1699347496032715e-01 9.7260272502899170e-01</leafValues></_>
        <_>
          <internalNodes>
            0 -1 4 7.3343440890312195e-02</internalNodes>
          <leafValues>
            -9.0989124774932861e-01 7.5236076116561890e-01</leafValues></_></weakClassifiers></_>
    <!-- stage 1 -->
    <_>
      <maxWeakCount>4</maxWeakCount>
      <stageThreshold>-9.2948865890502930e-01</stageThreshold>
      <weakClassifiers>
        <_>
          <internalNodes>
            0 -1 9 3.2747268676757813e-02</internalNodes>
          <leafValues>
            -9.6226418018341064e-01 4.0000000596046448e-01</leafValues></_>
        <_>
          <internalNodes>
            0 -1 17 7.4435040354728699e-02</internalNodes>
          <leafValues>
            -7.4928689002990723e-01 5.5492734909057617e-01</leafValues></_>
        <_>
          <internalNodes>
            0 -1 7 6.2364325858652592e-03</internalNodes>
          <leafValues>
            -9.2328059673309326e-01 3.6552545428276062e-01</leafValues></_>
        <_>
          <internalNodes>
            0 -1 13 -1.3032851740717888e-02</internalNodes>
          <leafValues>
            4.1653692722320557e-01 -8.7485164403915405e-01</leafValues></_></weakClassifiers></_>
    <!-- stage 2 -->
    <_>
      <maxWeakCount>4</maxWeakCount>
      <stageThreshold>-2.0488943159580231e-01</stageThreshold>
      <weakClassifiers>
        <_>
          <internalNodes>
            0 -1 2 -1.7383897677063942e-02</internalNodes>
          <leafValues>
            6.7901235818862915e-01 -7.5172412395477295e-01</leafValues></_>
        <_>
          <internalNodes>
            0 -1 16 6.2680497765541077e-02</internalNodes>
          <leafValues>
            -8.0783456563949585e-01 4.8909455537796021e-01</leafValues></_>
        <_>
          <internalNodes>
            0 -1 12 1.6253426671028137e-02</internalNodes>
          <leafValues>
            -5.0978916883468628e-01 8.0166482925415039e-01</leafValues></_>
        <_>
          <internalNodes>
            0 -1 5 3.7060528993606567e-02</internalNodes>
          <leafValues>
            -6.9720369577407837e-01 5.6752932071685791e-01</leafValues></_></weakClassifiers></_>
    <!-- stage 3 -->
    <_>
      <maxWeakCount>3</maxWeakCount>
      <stageThreshold>-3.9225476980209351e-01</stageThreshold>
      <weakClassifiers>
        <_>
          <internalNodes>
            0 -1 11 1.3472503051161766e-02</internalNodes>
          <leafValues>
            -8.0152672529220581e-01 5.3684210777282715e-01</leafValues></_>
        <_>
          <internalNodes>
            0 -1 15 -1.0832170955836773e-02</internalNodes>
          <leafValues>
            8.5592353343963623e-01 -4.0770560503005981e-01</leafValues></_>
        <_>
          <internalNodes>
            0 -1 14 2.6406676042824984e-03</internalNodes>
          <leafValues>
            -3.9116707444190979e-01 8.1697756052017212e-01</leafValues></_></weakClassifiers></_>
    <!-- stage 4 -->
    <_>
      <maxWeakCount>3</maxWeakCount>
      <stageThreshold>-8.8123172521591187e-01</stageThreshold>
      <weakClassifiers>
        <_>
          <internalNodes>
            0 -1 3 1.8361833691596985e-01</internalNodes>
          <leafValues>
            -8.1294965744018555e-01 3.1707316637039185e-01</leafValues></_>
        <_>
          <internalNodes>
            0 -1 18 1.3366665225476027e-03</internalNodes>
          <leafValues>
            -6.0267937183380127e-01 5.5473363399505615e-01</leafValues></_>
        <_>
          <internalNodes>
            0 -1 1 7.3496173135936260e-03</internalNodes>
          <leafValues>
            -5.9562557935714722e-01 5.8805561065673828e-01</leafValues></_></weakClassifiers></_>
    <!-- stage 5 -->
    <_>
      <maxWeakCount>4</maxWeakCount>
      <stageThreshold>-5.7543820142745972e-01</stageThreshold>
      <weakClassifiers>
        <_>
          <internalNodes>
            0 -1 10 6.1058972030878067e-02</internalNodes>
          <leafValues>
            -7.7181208133697510e-01 4.8387095332145691e-01</leafValues></_>
        <_>
          <internalNodes>
            0 -1 19 -9.0593774802982807e-04</internalNodes>
          <leafValues>
            -9.4088238477706909e-01 1.9479341804981232e-01</leafValues></_>
        <_>
          <internalNodes>
            0 -1 6 -4.6322561800479889e-02</internalNodes>
          <leafValues>
            6.9899713993072510e-01 -4.7402107715606689e-01</leafValues></_>
        <_>
          <internalNodes>
            0 -1 0 5.5832937359809875e-03</internalNodes>
          <leafValues>
            -6.9288933277130127e-01 4.7560155391693115e-01</leafValues></_></weakClassifiers></_></stages>
  <features>
    <_>
      <rects>
        <_>
          0 0 18 1 -1.</_>
        <_>
          6 0 6 1 3.</_></rects>
      <tilted>0</tilted></_>
    <_>
      <rects>
        <_>
          0 11 4 8 -1.</_>
        <_>
          2 11 2 8 2.</_></rects>
      <tilted>0</tilted></_>
    <_>
      <rects>
        <_>
          1 0 9 4 -1.</_>
        <_>
          1 2 9 2 2.</_></rects>
      <tilted>0</tilted></_>
    <_>
      <rects>
        <_>
          1 4 22 12 -1.</_>
        <_>
          1 8 22 4 3.</_></rects>
      <tilted>0</tilted></_>
    <_>
      <rects>
        <_>
          1 5 16 12 -1.</_>
        <_>
          1 9 16 4 3.</_></rects>
      <tilted>0</tilted></_>
    <_>
      <rects>
        <_>
          2 4 3 15 -1.</_>
        <_>
          2 9 3 5 3.</_></rects>
      <tilted>0</tilted></_>
    <_>
      <rects>
        <_>
          3 17 17 6 -1.</_>
        <_>
          3 19 17 2 3.</_></rects>
      <tilted>0</tilted></_>
    <_>
      <rects>
        <_>
          5 2 1 14 -1.</_>
        <_>
          5 9 1 7 2.</_></rects>
      <tilted>0</tilted></_>
    <_>
      <rects>
        <_>
          6 1 12 7 -1.</_>
        <_>
          10 1 4 7 3.</_></rects>
      <tilted>0</tilted></_>
    <_>
      <rects>
        <_>
          6 1 12 8 -1.</_>
        <_>
          10 1 4 8 3.</_></rects>
      <tilted>0</tilted></_>
    <_>
      <rects>
        <_>
          7 1 9 6 -1.</_>
        <_>
          10 1 3 6 3.</_></rects>
      <tilted>0</tilted></_>
    <_>
      <rects>
        <_>
          9 3 6 6 -1.</_>
        <_>
          11 3 2 6 3.</_></rects>
      <tilted>0</tilted></_>
    <_>
      <rects>
        <_>
          9 9 6 6 -1.</_>
        <_>
          11 9 2 6 3.</_></rects>
      <tilted>0</tilted></_>
    <_>
      <rects>
        <_>
          11 6 5 18 -1.</_>
        <_>
          11 15 5 9 2.</_></rects>
      <tilted>0</tilted></_>
    <_>
      <rects>
        <_>
          11 20 2 3 -1.</_>
        <_>
          11 21 2 1 3.</_></rects>
      <tilted>0</tilted></_>
    <_>
      <rects>
        <_>
          14 18 2 6 -1.</_>
        <_>
          14 20 2 2 3.</_></rects>
      <tilted>0</tilted></_>
    <_>
      <rects>
        <_>
          15 1 8 14 -1.</_>
        <_>
          15 8 8 7 2.</_></rects>
      <tilted>0</tilted></_>
    <_>
      <rects>
        <_>
          18 1 4 21 -1.</_>
        <_>
          18 8 4 7 3.</_></rects>
      <tilted>0</tilted></_>
    <_>
      <rects>
        <_>
          19 0 4 2 -1.</_>
        <_>
          19 0 2 1 2.</_>
        <_>
          21 1 2 1 2.</_></rects>
      <tilted>0</tilted></_>
    <_>
      <rects>
        <_>
          19 12 3 8 -1.</_>
        <_>
          20 12 1 8 3.</_></rects>
      <tilted>0</tilted></_></features></cascade>
</opencv_storage>
