<?xml version="1.0"?>
<opencv_storage>
<cascade>
  <stageType>BOOST</stageType>
  <featureType>HAAR</featureType>
  <height>24</height>
  <width>24</width>
  <stageParams>
    <boostType>GAB</boostType>
    <minHitRate>9.9500000476837158e-01</minHitRate>
    <maxFalseAlarm>5.0000000000000000e-01</maxFalseAlarm>
    <weightTrimRate>9.4999999999999996e-01</weightTrimRate>
    <maxDepth>1</maxDepth>
    <maxWeakCount>100</maxWeakCount></stageParams>
  <featureParams>
    <maxCatCount>0</maxCatCount>
    <featSize>1</featSize>
    <mode>BASIC</mode></featureParams>
  <stageNum>8</stageNum>
  <stages>
    <!-- stage 0 -->
    <_>
      <maxWeakCount>2</maxWeakCount>
      <stageThreshold>-1.4623270928859711e-01</stageThreshold>
      <weakClassifiers>
        <_>
          <internalNodes>
            0 -1 16 1.8153218552470207e-02</internalNodes>
          <leafValues>
            -8.1456953287124634e-01 8.9473682641983032e-01</leafValues></_>
        <_>
          <internalNodes>
            0 -1 4 -2.3214358836412430e-02</internalNodes>
          <leafValues>
            6.6833680868148804e-01 -9.1862988471984863e-01</leafValues></_></weakClassifiers></_>
    <!-- stage 1 -->
    <_>
      <maxWeakCount>3</maxWeakCount>
      <stageThreshold>-1.0887169837951660e+00</stageThreshold>
      <weakClassifiers>
        <_>
          <internalNodes>
            0 -1 0 2.7374586462974548e-01</internalNodes>
          <leafValues>
            -8.2191783189773560e-01 7.7419352531433105e-01</leafValues></_>
        <_>
          <internalNodes>
            0 -1 11 5.2861303091049194e-02</internalNodes>
          <leafValues>
            -7.9104900360107422e-01 5.2710902690887451e-01</leafValues></_>
        <_>
          <internalNodes>
            0 -1 23 -1.4098020270466805e-02</internalNodes>
          <leafValues>
            6.0432958602905273e-01 -7.9390817880630493e-01</leafValues></_></weakClassifiers></_>
    <!-- stage 2 -->
    <_>
      <maxWeakCount>5</maxWeakCount>
      <stageThreshold>-1.0718910694122314e+00</stageThreshold>
      <weakClassifiers>
        <_>
          <internalNodes>
            0 -1 2 1.7419651150703430e-01</internalNodes>
          <leafValues>
            -7.4324321746826172e-01 6.3333332538604736e-01</leafValues></_>
        <_>
          <internalNodes>
            0 -1 18 -1.8772426992654800e-02</internalNodes>
          <leafValues>
            5.0899034738540649e-01 -7.5271630287170410e-01</leafValues></_>
        <_>
          <internalNodes>
            0 -1 12 1.0703408718109131e-01</internalNodes>
          <leafValues>
            -8.5615575313568115e-01 3.9696356654167175e-01</leafValues></_>
        <_>
          <internalNodes>
            0 -1 3 2.0093295723199844e-02</internalNodes>
          <leafValues>
            -7.0351469516754150e-01 4.3231904506683350e-01</leafValues></_>
        <_>
          <internalNodes>
            0 -1 10 -3.5009025596082211e-03</internalNodes>
          <leafValues>
            9.6619808673858643e-01 -4.0521407127380371e-01</leafValues></_></weakClassifiers></_>
    <!-- stage 3 -->
    <_>
      <maxWeakCount>3</maxWeakCount>
      <stageThreshold>-7.2723859548568726e-01</stageThreshold>
      <weakClassifiers>
        <_>
          <internalNodes>
            0 -1 7 -9.1149210929870605e-03</internalNodes>
          <leafValues>
            8.8235294818878174e-01 -5.8620691299438477e-01</leafValues></_>
        <_>
          <internalNodes>
            0 -1 22 1.2126271426677704e-01</internalNodes>
          <leafValues>
            -5.8533364534378052e-01 5.9131783246994019e-01</leafValues></_>
        <_>
          <internalNodes>
            0 -1 8 -1.8035266548395157e-02</internalNodes>
          <leafValues>
            4.7696155309677124e-01 -7.3234951496124268e-01</leafValues></_></weakClassifiers></_>
    <!-- stage 4 -->
    <_>
      <maxWeakCount>2</maxWeakCount>
      <stageThreshold>-3.3352813124656677e-01</stageThreshold>
      <weakClassifiers>
        <_>
          <internalNodes>
            0 -1 15 3.3998243510723114e-02</internalNodes>
          <leafValues>
            -6.5853661298751831e-01 7.6470589637756348e-01</leafValues></_>
        <_>
          <internalNodes>
            0 -1 1 1.4686852693557739e-02</internalNodes>
          <leafValues>
            -9.2098540067672729e-01 3.2500848174095154e-01</leafValues></_></weakClassifiers></_>
    <!-- stage 5 -->
    <_>
      <maxWeakCount>4</maxWeakCount>
      <stageThreshold>-1.0379922389984131e+00</stageThreshold>
      <weakClassifiers>
        <_>
          <internalNodes>
            0 -1 19 -1.6332179307937622e-02</internalNodes>
          <leafValues>
            7.1428573131561279e-01 -7.1794873476028442e-01</leafValues></_>
        <_>
          <internalNodes>
            0 -1 20 1.9047534093260765e-02</internalNodes>
          <leafValues>
            -6.6416513919830322e-01 6.9524329900741577e-01</leafValues></_>
        <_>
          <internalNodes>
            0 -1 13 -2.7820326387882233e-02</internalNodes>
          <leafValues>
            9.1321504116058350e-01 -4.4718605279922485e-01</leafValues></_>
        <_>
          <internalNodes>
            0 -1 14 -4.2735259048640728e-03</internalNodes>
          <leafValues>
            7.9130768775939941e-01 -3.3769977092742920e-01</leafValues></_></weakClassifiers></_>
    <!-- stage 6 -->
    <_>
      <maxWeakCount>2</maxWeakCount>
      <stageThreshold>-3.5976099967956543e-01</stageThreshold>
      <weakClassifiers>
        <_>
          <internalNodes>
            0 -1 6 -2.7430713176727295e-01</internalNodes>
          <leafValues>
            8.0000001192092896e-01 -6.3095235824584961e-01</leafValues></_>
        <_>
          <internalNodes>
            0 -1 5 5.2999254316091537e-02</internalNodes>
          <leafValues>
            -9.7748899459838867e-01 2.7119138836860657e-01</leafValues></_></weakClassifiers></_>
    <!-- stage 7 -->
    <_>
      <maxWeakCount>4</maxWeakCount>
      <stageThreshold>-7.8546208143234253e-01</stageThreshold>
      <weakClassifiers>
        <_>
          <internalNodes>
            0 -1 17 5.5542057380080223e-03</internalNodes>
          <leafValues>
            -7.7777779102325439e-01 2.9411765933036804e-01</leafValues></_>
        <_>
          <internalNodes>
            0 -1 21 6.9908401928842068e-04</internalNodes>
          <leafValues>
            -8.1358015537261963e-01 3.0122563242912292e-01</leafValues></_>
        <_>
          <internalNodes>
            0 -1 9 -7.0759274065494537e-02</internalNodes>
          <leafValues>
            3.9576768875122070e-01 -7.4874567985534668e-01</leafValues></_>
        <_>
          <internalNodes>
            0 -1 24 -5.8401329442858696e-04</internalNodes>
          <leafValues>
            4.8274618387222290e-01 -6.4983004331588745e-01</leafValues></_></weakClassifiers></_></stages>
  <features>
    <_>
      <rects>
        <_>
          0 2 22 18 -1.</_>
        <_>
          0 8 22 6 3.</_></rects>
      <tilted>0</tilted></_>
    <_>
      <rects>
        <_>
          1 0 4 14 -1.</_>
        <_>
          1 7 4 7 2.</_></rects>
      <tilted>0</tilted></_>
    <_>
      <rects>
        <_>
          1 4 22 12 -1.</_>
        <_>
          1 8 22 4 3.</_></rects>
      <tilted>0</tilted></_>
    <_>
      <rects>
        <_>
          2 0 10 7 -1.</_>
        <_>
          7 0 5 7 2.</_></rects>
      <tilted>0</tilted></_>
    <_>
      <rects>
        <_>
          2 0 7 12 -1.</_>
        <_>
          2 4 7 4 3.</_></rects>
      <tilted>0</tilted></_>
    <_>
      <rects>
        <_>
          2 0 21 13 -1.</_>
        <_>
          9 0 7 13 3.</_></rects>
      <tilted>0</tilted></_>
    <_>
      <rects>
        <_>
          3 0 18 12 -1.</_>
        <_>
          3 4 18 4 3.</_></rects>
      <tilted>0</tilted></_>
    <_>
      <rects>
        <_>
          4 18 11 2 -1.</_>
        <_>
          4 19 11 1 2.</_></rects>
      <tilted>0</tilted></_>
    <_>
      <rects>
        <_>
          6 0 7 6 -1.</_>
        <_>
          6 3 7 3 2.</_></rects>
      <tilted>0</tilted></_>
    <_>
      <rects>
        <_>
          6 0 15 12 -1.</_>
        <_>
          6 4 15 4 3.</_></rects>
      <tilted>0</tilted></_>
    <_>
      <rects>
        <_>
          6 1 2 3 -1.</_>
        <_>
          6 2 2 1 3.</_></rects>
      <tilted>0</tilted></_>
    <_>
      <rects>
        <_>
          6 1 12 7 -1.</_>
        <_>
          10 1 4 7 3.</_></rects>
      <tilted>0</tilted></_>
    <_>
      <rects>
        <_>
          7 3 17 18 -1.</_>
        <_>
          7 9 17 6 3.</_></rects>
      <tilted>0</tilted></_>
    <_>
      <rects>
        <_>
          7 17 8 6 -1.</_>
        <_>
          7 19 8 2 3.</_></rects>
      <tilted>0</tilted></_>
    <_>
      <rects>
        <_>
          8 6 3 11 -1.</_>
        <_>
          9 6 1 11 3.</_></rects>
      <tilted>0</tilted></_>
    <_>
      <rects>
        <_>
          9 3 6 6 -1.</_>
        <_>
          11 3 2 6 3.</_></rects>
      <tilted>0</tilted></_>
    <_>
      <rects>
        <_>
          9 3 6 7 -1.</_>
        <_>
          11 3 2 7 3.</_></rects>
      <tilted>0</tilted></_>
    <_>
      <rects>
        <_>
          9 19 6 2 -1.</_>
        <_>
          9 20 6 1 2.</_></rects>
      <tilted>0</tilted></_>
    <_>
      <rects>
        <_>
          11 1 6 9 -1.</_>
        <_>
          14 1 3 9 2.</_></rects>
      <tilted>0</tilted></_>
    <_>
      <rects>
        <_>
          11 3 6 11 -1.</_>
        <_>
          13 3 2 11 3.</_></rects>
      <tilted>0</tilted></_>
    <_>
      <rects>
        <_>
          13 4 6 16 -1.</_>
        <_>
          13 4 3 8 2.</_>
        <_>
          16 12 3 8 2.</_></rects>
      <tilted>0</tilted></_>
    <_>
      <rects>
        <_>
          13 22 9 1 -1.</_>
        <_>
          16 22 3 1 3.</_></rects>
      <tilted>0</tilted></_>
    <_>
      <rects>
        <_>
          17 1 6 21 -1.</_>
        <_>
          17 8 6 7 3.</_></rects>
      <tilted>0</tilted></_>
    <_>
      <rects>
        <_>
          19 10 3 14 -1.</_>
        <_>
          19 17 3 7 2.</_></rects>
      <tilted>0</tilted></_>
    <_>
      <rects>
        <_>
          20 10 2 4 -1.</_>
        <_>
          20 12 2 2 2.</_></rects>
      <tilted>0</tilted></_></features></cascade>
</opencv_storage>
